16 21
1.4138068702829514 0.6745831202080526 -0.7592595483377221 -0.9381587560027101 1.7579569205865642 -0.07559606138445549 -0.45734439543843297 -0.6727437076131079 -2.1258118521221387 1.5557835167603955 0.9849711071159887 0.993969359493181 2.2867563825764066 0.3073073472141407 -2.555009095065434 -0.8468837013569026 -0.3388532728065686 0.5436272364757392 1.9207982961907561 -0.6384108091429893 -1.371530942691105 
-2.3999007463565913 -0.3093818980451251 1.5614930617624376 -0.24239334674106122 -1.7154320527934892 -0.2613000154559926 2.141982447490173 -0.21779907378964133 1.221684312073082 -0.14975931194918335 -0.35249567431885204 -0.30398529750015024 -1.645297033239472 0.8520105956206078 1.072661903468591 1.9207556950849256 0.28664292552626636 -1.3118374334501326 -2.3748521667493323 2.0602157976884454 -0.10408295820626039 
1.5498258188344656 1.04891500607002 -0.037038280141588664 -1.6965424608679174 0.7576515497972043 0.37169820086824673 -0.23754207774762867 0.11254645332642958 -0.43593414880708853 1.1490739624521251 -0.028128662039277927 -0.48861156212173673 -0.7095088169444179 1.8015402725182417 -0.23532317600695687 1.680040326538919 0.5656981279592789 -0.9949467551513963 -0.8354087797879085 3.3653307168175317 -1.8503461351803565 
1.673686479804964 1.778448035475826 -0.3578325174091215 -2.2813509362932454 1.7129694018288766 0.9876483505048992 -0.07597476447746807 -1.33838992709919 -0.794273273898651 -0.5456969567715871 0.8593042857067907 1.040819364674022 1.0374857581511456 -0.8448628468419043 0.4248466104422157 1.2337700630359594 -1.3722677657022577 0.6114074484455344 0.709240819681852 0.3795674784107033 -1.2038231022623644 
-0.38261004794229553 -0.05438609601894608 0.014673548044856419 -0.10160553661643217 -0.7158999169904556 0.7493641658149456 -0.31210943902401694 -0.24002274748793098 -0.6592075572375098 -0.30852549088698644 -0.13769055928541013 -0.05827555191436116 -1.0753272961618499 0.6360988757431579 -0.5311395086695668 -1.0684118251906207 -0.20006498454979393 0.5247742274895667 -0.9885594269940607 -0.9178693387776821 1.4493827168313638 
-0.42686496760789083 0.3433003160669991 -0.47565462526593133 0.8270060585575654 1.2804942317056844 -1.087654984995711 0.3208151483644775 -0.7079502981973439 1.4534197007067553 0.18924952941120957 -0.8333761014891058 -0.30616335135143385 1.370094558628112 0.08464635051748491 -0.368441280658932 2.0362383434468843 -0.16312650659946393 -1.150565634754621 0.7626094078679866 0.80137715049682 -1.4721628379927314 
0.16938183894711567 0.6111048595260337 -1.7252184815124074 0.37829262055207025 1.1899691496488294 -1.151456650411903 -1.2404689017210566 0.030615126557726493 1.3554868832433473 -0.4307691434716627 -0.5187831662316205 -0.158724863386383 1.0675965225847495 -0.515276348867315 -0.43764670339607614 0.9390033200914696 0.5503051988391693 -1.2275380917722276 0.8072733619296212 0.818838349739439 -1.0978446031913176 
-1.150886995005146 -0.7471674119564339 1.738784561677572 -0.07869037703969872 -1.4003032493790923 1.2512642078891398 0.6656915983698883 -0.3702355903497986 -0.5057249409772585 -0.2987054977888666 0.575019489819398 0.18636857494404344 -0.7470942093765803 0.6536382301605289 -0.11161814975531754 -0.5051482377130123 -0.7232894138158961 0.5870738071470141 -0.7307435779397365 -0.24276586938083566 0.28479333798155926 
1.0097811910047705 2.2376984224355714 0.06896388951642363 -3.2224312993223525 1.8485892372516857 1.6867625330957856 0.28968101980979 -2.221081804108144 0.3204765975507493 0.016488591012023785 0.20422489729508983 -0.09208733069061335 1.7522854645028032 -0.3069064004448993 -0.41322704701028895 0.5729654195170797 0.6617930889738973 -0.02779598042554865 0.9614913994468476 -0.24227058532448326 -0.6991445056859534 
6.895389687093962E-5 0.879659473510185 -1.170552730572621 -0.0480521136414618 1.2879882779628757 -0.33211858899819957 0.7135019776245479 -1.5354231412269925 -0.43080855087950987 -0.046803267771341514 0.13464122663839423 0.08466080520870799 -1.2285792210046398 0.8755646482705812 0.06730364806651608 0.051806418666155596 0.03677180040509109 -0.20940914260516147 -1.2151419745170529 1.0731937544898993 0.4463739289251659 
0.6992973711944593 0.6486466910815654 0.3821021542928934 -0.6411790817239479 0.03544822035633846 1.3157512800177538 -0.792756997456818 -1.4660492606658873 -0.8142084059631253 0.14733116037673846 0.26459962444090346 0.21207907870605885 0.3569279695123561 -0.3259651646082314 0.1965131234079316 -1.6445305991678445 0.39452151953366843 1.4169881540256601 -0.335419576950753 -1.6170978023332092 1.2534516363234218 
1.1419833078556654 1.2721978458372758 -0.38530515180305763 -0.16832767252294548 1.3093892641883533 -0.07544099503997348 0.02907775814687819 0.23959609794193534 2.161244104217513 0.5515332669486652 -0.38478896420811254 -1.0528027654132044 2.1939633573760937 0.7231735669129588 -2.0233895684968815 3.121790947301336 -0.3493600537454571 -2.2232537705405493 1.8741607137050553 -0.8803280230018264 -0.5609109066687855 
-1.5470166134957968 -1.5689704061077785 0.8931208723532389 1.3783046911868364 -1.6191821330481695 -0.8160179651293069 0.9604347048293035 0.48112429921007643 -1.373790858660622 -0.0018901405180041285 0.261771222322441 0.010272278329385223 -2.980088225464185 2.317949548980841 0.21682645839494893 -0.8344631856604738 -0.621335320966956 -0.3126131905162728 -3.2522262853214126 0.28139113862355725 0.9362681284393891 
0.6282078019929758 -0.036574952799631855 0.00796536532283138 -0.33780472820634383 0.11105240759379738 1.0022507431024767 -0.023714083132779243 -0.18216881030788726 -2.0226579576516044 -0.09326235203443686 1.5391047788205272 1.4388369959098548 -2.0024670310450237 1.0941590249214093 1.0356224992739236 -2.8759403962323464 0.003982822857156417 3.0587877242150716 -2.3772044491265216 -1.4272396774362905 3.5617979917076905 
-1.0575292773061675 -1.1666903991196989 0.14785269324995232 1.691332834386424 -1.5975999637565426 -1.5111640755178368 0.8953343097567162 1.8972886104420972 -0.19392037367841863 -0.37796226620254264 0.30890989703405586 0.32492581340526006 -0.21209900299741496 -0.9430121220443456 0.24592127637053626 -0.39019102468117933 -0.683298142510748 0.44492523359519387 0.5106706602877856 -0.7569686845357952 0.4796434509260067 
1.4172034774563984 -2.537490119210381 1.963656171194691 -1.3728910418857116 -1.6832919955087966 3.041189832926284 -0.42531137139675473 -1.7531910294443178 0.6080028155285402 -1.2523748371515477 0.3744996514103902 0.029530341116328827 2.4516489522830054 -2.1505006281227637 -0.30994948766638103 -0.17957116820274957 -0.45077579895792175 -0.10700648616258383 2.1584201255392945 -1.2686375128434142 -0.851977694566917 
16
0.7955999936290314 -0.2290929262084194 0.3452164272610752 0.6244148901462026 -0.21184278680450164 0.45347585276561736 -0.6229043977481542 0.06116542176628355 0.5168954574342954 0.6174120591308049 0.3413375098943188 0.6534997737912772 -1.304846324112685 0.019099136347271332 -0.3399688434077526 -0.38090548551075004 
12 16
2.3383470234819494 -1.6264381623622053 -1.0637005739993222 0.6041069228570989 -0.8282197503084542 1.0168400912062254 1.0521296186421274 -0.588933385471691 1.2098689896586667 -0.7210502480685063 -0.42004507602931695 1.375701429731942 -1.1096541752644682 -2.2792459076127884 0.4788309888180071 2.1126260032247384 
-0.1404244080655209 0.06139028485163017 0.40886712465784575 0.19882781873287092 0.302549346944478 -0.37100971042721725 -1.1258064061738788 0.6198416601130721 0.023061101261551368 0.4502501829065051 0.1698552545016725 -0.9640370262012267 0.39113448251847976 0.9456802296136464 0.020001198884300724 -0.2527585510412797 
-1.6353278227862722 0.52076077399442 1.3914971609003988 -0.4075118737321928 0.42224689494649376 -0.4800130502618485 -0.5161981642324384 0.12102404888003622 -0.2082224605324663 0.8058378372189656 -0.18882492698625963 -0.4867513779583835 0.5111910686189358 1.5752082394719338 -0.5724671507544578 -1.190829453468834 
2.2648567875274317 -2.46522521772157 -1.142343752941539 0.8963176884555775 -1.043152275621979 1.0221568404718553 0.8536256712951336 -0.7855734858830068 2.166517066378523 -0.5754287429426195 0.026065062639802072 2.043843055417939 -2.4624443371617404 -2.1675453301161998 -0.1109534672070379 2.62533828462915 
4.036291971617339 -3.6122277331697217 -2.097843699453961 1.5190964838165493 -1.1308884737347444 1.9224560320362143 0.9123670830952204 -1.7958559326635757 2.613333841379001 -1.2562946404321873 0.43474650773567974 3.1638774724283985 -3.8703635704220853 -4.091990604439487 0.3355083128572499 4.458125354291054 
1.272949543740725 -1.369578102504069 -0.9525750788689258 0.8061063737483455 -0.5868646321146851 0.4604386750925541 0.6625171613910524 -0.40339982689040405 0.5812756519991994 -0.5740034656582719 -0.3821953492406264 1.3391674520698205 -1.4192778284616048 -1.0866910713627027 0.2875573771016016 0.7696381964190216 
-1.1526027622214754 -0.20701686870551808 -2.8761778212535667 -2.1837367370092955 1.4209589635607704 -2.9083095803067853 -2.273918058195767 0.9901478829719169 -0.5491926562540544 -0.531839825366537 1.4740526183102407 -2.740493185266895 1.8653960455305967 1.0621615840426768 0.2521037049109228 -1.3843874314275946 
0.7490707801248409 -1.007023635851837 1.618147533255065 2.3633731971054406 -0.3296786096869221 0.5116114709279943 1.0392882721807264 -1.5637158414482746 2.1195729219905743 0.9943806630944722 0.9791352278910026 0.6577532164377079 -1.5597477105919777 -0.40556401461403874 -2.0098656868205187 0.29343927559894517 
2.3283978569875345 -1.7829633712605182 1.537851272889002 3.4625361747315706 -0.17731749380017017 1.037111603430634 2.49394008192609 -1.3342164438216066 3.576736663572915 1.1761050148607535 1.7972018848692153 2.630583340489741 -2.8418093657382926 -2.1277771157668304 -2.659290407448175 2.1923110527909633 
0.993034226649611 -1.481774721448088 1.653349205610067 2.1830573918878655 -0.41641130731761417 0.4019249580821067 1.503623926523066 -0.8326720179420698 1.855313794313133 0.7957431107585968 0.7917341274033186 1.4019702528802245 -1.6543854013202832 -0.5781429801617317 -2.104994952555882 0.6215553056753931 
-0.04926836378934578 1.1727321050459902 1.6860035241816318 0.47145432046761043 -0.8810625035946813 0.8077622993605027 0.6672014385097225 -0.14518428046831092 -0.5732458509364171 0.16956340391206895 -1.661488095341628 0.6236285387582877 -0.32663766655391935 0.16923539755846997 -0.3211519752964731 -0.8734462754314177 
0.7631811415090118 -1.724590318616778 -1.9671525488795334 0.415836362684818 1.7416592906515 -1.89300440988474 -0.9270455151839678 1.1396101509617471 1.404003912102448 0.6902040934767334 2.385925692656744 -0.6067362688633358 -0.6516032648505219 -0.14259326062315653 -0.47988493220762046 1.5369562342042353 
12
0.3253326820597853 0.13512165273948312 -0.5792572324707416 -0.22977191496028032 0.5504078377900259 0.5035273881608634 -0.7365603697813582 0.1410734884603077 0.07251554614572926 0.1361730305141422 -0.18929267235199906 0.4765162053673509 
4 12
3.929079027738454 -1.9544713110267755 -2.9223725517700028 3.826127463882021 6.084227405769082 2.3905485556921864 -2.2185619953097295 -2.0674981789770652 0.21770639173920295 -1.5657533948250015 -1.320499880750397 1.0720189458226408 
-1.863024143098156 -1.6397261305212127 -0.4256343995869703 -4.325500731820674 -8.523066018392024 -1.365297806085352 -2.103475604862809 3.3630736806285784 6.419963069597204 3.208190276319383 -1.3539183515832354 0.6954261106302375 
-2.883451887798479 0.7601127783925828 1.9912889377133343 -1.3956114117700242 -1.768284102400133 -1.288124435480065 -4.1424475193288695 -1.539653374161884 -5.105880142339496 -2.0018680200791055 2.625044616090335 -4.2266304880517875 
-1.6430459378612228 -0.14725803855572678 -0.4975186039198622 -1.415888222101809 -1.12043754234117 -0.8615080951593567 5.135830473873895 -2.3065666010658954 -2.9925654581745853 -2.735415840593531 -2.131024504441902 2.406659771643334 
4
-0.9626956409953221 -2.6872028314849348 0.6496531115549768 -0.8807102973754845 
